{"Z":1,"edge_weighting":"binary","edges":[[0,1,"radial"],[1,5,"radial"],[2,3,"angular"],[2,6,"radial"],[3,4,"angular"],[3,7,"radial"],[4,8,"radial"],[5,14,"radial"],[6,7,"angular"],[6,15,"radial"],[7,8,"angular"],[7,16,"radial"],[8,17,"radial"],[9,10,"angular"],[9,18,"radial"],[10,11,"angular"],[10,19,"radial"],[11,12,"angular"],[11,20,"radial"],[12,13,"angular"],[12,21,"radial"],[13,22,"radial"],[14,30,"radial"],[15,16,"angular"],[15,31,"radial"],[16,17,"angular"],[16,32,"radial"],[17,33,"radial"],[18,19,"angular"],[18,34,"radial"],[19,20,"angular"],[19,35,"radial"],[20,21,"angular"],[20,36,"radial"],[21,22,"angular"],[21,37,"radial"],[22,38,"radial"],[23,24,"angular"],[23,39,"radial"],[24,25,"angular"],[24,40,"radial"],[25,26,"angular"],[25,41,"radial"],[26,27,"angular"],[26,42,"radial"],[27,28,"angular"],[27,43,"radial"],[28,29,"angular"],[28,44,"radial"],[29,45,"radial"],[30,55,"radial"],[31,32,"angular"],[31,56,"radial"],[32,33,"angular"],[32,57,"radial"],[33,58,"radial"],[34,35,"angular"],[34,59,"radial"],[35,36,"angular"],[35,60,"radial"],[36,37,"angular"],[36,61,"radial"],[37,38,"angular"],[37,62,"radial"],[38,63,"radial"],[39,40,"angular"],[39,64,"radial"],[40,41,"angular"],[40,65,"radial"],[41,42,"angular"],[41,66,"radial"],[42,43,"angular"],[42,67,"radial"],[43,44,"angular"],[43,68,"radial"],[44,45,"angular"],[44,69,"radial"],[45,70,"radial"],[46,47,"angular"],[46,71,"radial"],[47,48,"angular"],[47,72,"radial"],[48,49,"angular"],[48,73,"radial"],[49,50,"angular"],[49,74,"radial"],[50,51,"angular"],[50,75,"radial"],[51,52,"angular"],[51,76,"radial"],[52,53,"angular"],[52,77,"radial"],[53,54,"angular"],[53,78,"radial"],[54,79,"radial"],[55,91,"radial"],[56,57,"angular"],[56,92,"radial"],[57,58,"angular"],[57,93,"radial"],[58,94,"radial"],[59,60,"angular"],[59,95,"radial"],[60,61,"angular"],[60,96,"radial"],[61,62,"angular"],[61,97,"radial"],[62,63,"angular"],[62,98,"radial"],[63,99,"radial"],[64,65,"angular"],[64,100,"radial"],[65,66,"angular"],[65,101,"radial"],[66,67,"angular"],[66,102,"radial"],[67,68,"angular"],[67,103,"radial"],[68,69,"angular"],[68,104,"radial"],[69,70,"angular"],[69,105,"radial"],[70,106,"radial"],[71,72,"angular"],[71,107,"radial"],[72,73,"angular"],[72,108,"radial"],[73,74,"angular"],[73,109,"radial"],[74,75,"angular"],[74,110,"radial"],[75,76,"angular"],[75,111,"radial"],[76,77,"angular"],[76,112,"radial"],[77,78,"angular"],[77,113,"radial"],[78,79,"angular"],[78,114,"radial"],[79,115,"radial"],[80,81,"angular"],[80,116,"radial"],[81,82,"angular"],[81,117,"radial"],[82,83,"angular"],[82,118,"radial"],[83,84,"angular"],[83,119,"radial"],[84,85,"angular"],[84,120,"radial"],[85,86,"angular"],[85,121,"radial"],[86,87,"angular"],[86,122,"radial"],[87,88,"angular"],[87,123,"radial"],[88,89,"angular"],[88,124,"radial"],[89,90,"angular"],[89,125,"radial"],[90,126,"radial"],[91,140,"radial"],[92,93,"angular"],[92,141,"radial"],[93,94,"angular"],[93,142,"radial"],[94,143,"radial"],[95,96,"angular"],[95,144,"radial"],[96,97,"angular"],[96,145,"radial"],[97,98,"angular"],[97,146,"radial"],[98,99,"angular"],[98,147,"radial"],[99,148,"radial"],[100,101,"angular"],[100,149,"radial"],[101,102,"angular"],[101,150,"radial"],[102,103,"angular"],[102,151,"radial"],[103,104,"angular"],[103,152,"radial"],[104,105,"angular"],[104,153,"radial"],[105,106,"angular"],[105,154,"radial"],[106,155,"radial"],[107,108,"angular"],[107,156,"radial"],[108,109,"angular"],[108,157,"radial"],[109,110,"angular"],[109,158,"radial"],[110,111,"angular"],[110,159,"radial"],[111,112,"angular"],[111,160,"radial"],[112,113,"angular"],[112,161,"radial"],[113,114,"angular"],[113,162,"radial"],[114,115,"angular"],[114,163,"radial"],[115,164,"radial"],[116,117,"angular"],[116,165,"radial"],[117,118,"angular"],[117,166,"radial"],[118,119,"angular"],[118,167,"radial"],[119,120,"angular"],[119,168,"radial"],[120,121,"angular"],[120,169,"radial"],[121,122,"angular"],[121,170,"radial"],[122,123,"angular"],[122,171,"radial"],[123,124,"angular"],[123,172,"radial"],[124,125,"angular"],[124,173,"radial"],[125,126,"angular"],[125,174,"radial"],[126,175,"radial"],[127,128,"angular"],[127,176,"radial"],[128,129,"angular"],[128,177,"radial"],[129,130,"angular"],[129,178,"radial"],[130,131,"angular"],[130,179,"radial"],[131,132,"angular"],[131,180,"radial"],[132,133,"angular"],[132,181,"radial"],[133,134,"angular"],[133,182,"radial"],[134,135,"angular"],[134,183,"radial"],[135,136,"angular"],[135,184,"radial"],[136,137,"angular"],[136,185,"radial"],[137,138,"angular"],[137,186,"radial"],[138,139,"angular"],[138,187,"radial"],[139,188,"radial"],[140,204,"radial"],[141,142,"angular"],[141,205,"radial"],[142,143,"angular"],[142,206,"radial"],[143,207,"radial"],[144,145,"angular"],[144,208,"radial"],[145,146,"angular"],[145,209,"radial"],[146,147,"angular"],[146,210,"radial"],[147,148,"angular"],[147,211,"radial"],[148,212,"radial"],[149,150,"angular"],[149,213,"radial"],[150,151,"angular"],[150,214,"radial"],[151,152,"angular"],[151,215,"radial"],[152,153,"angular"],[152,216,"radial"],[153,154,"angular"],[153,217,"radial"],[154,155,"angular"],[154,218,"radial"],[155,219,"radial"],[156,157,"angular"],[156,220,"radial"],[157,158,"angular"],[157,221,"radial"],[158,159,"angular"],[158,222,"radial"],[159,160,"angular"],[159,223,"radial"],[160,161,"angular"],[160,224,"radial"],[161,162,"angular"],[161,225,"radial"],[162,163,"angular"],[162,226,"radial"],[163,164,"angular"],[163,227,"radial"],[164,228,"radial"],[165,166,"angular"],[165,229,"radial"],[166,167,"angular"],[166,230,"radial"],[167,168,"angular"],[167,231,"radial"],[168,169,"angular"],[168,232,"radial"],[169,170,"angular"],[169,233,"radial"],[170,171,"angular"],[170,234,"radial"],[171,172,"angular"],[171,235,"radial"],[172,173,"angular"],[172,236,"radial"],[173,174,"angular"],[173,237,"radial"],[174,175,"angular"],[174,238,"radial"],[175,239,"radial"],[176,177,"angular"],[176,240,"radial"],[177,178,"angular"],[177,241,"radial"],[178,179,"angular"],[178,242,"radial"],[179,180,"angular"],[179,243,"radial"],[180,181,"angular"],[180,244,"radial"],[181,182,"angular"],[181,245,"radial"],[182,183,"angular"],[182,246,"radial"],[183,184,"angular"],[183,247,"radial"],[184,185,"angular"],[184,248,"radial"],[185,186,"angular"],[185,249,"radial"],[186,187,"angular"],[186,250,"radial"],[187,188,"angular"],[187,251,"radial"],[188,252,"radial"],[189,190,"angular"],[189,253,"radial"],[190,191,"angular"],[190,254,"radial"],[191,192,"angular"],[191,255,"radial"],[192,193,"angular"],[192,256,"radial"],[193,194,"angular"],[193,257,"radial"],[194,195,"angular"],[194,258,"radial"],[195,196,"angular"],[195,259,"radial"],[196,197,"angular"],[196,260,"radial"],[197,198,"angular"],[197,261,"radial"],[198,199,"angular"],[198,262,"radial"],[199,200,"angular"],[199,263,"radial"],[200,201,"angular"],[200,264,"radial"],[201,202,"angular"],[201,265,"radial"],[202,203,"angular"],[202,266,"radial"],[203,267,"radial"],[205,206,"angular"],[206,207,"angular"],[208,209,"angular"],[209,210,"angular"],[210,211,"angular"],[211,212,"angular"],[213,214,"angular"],[214,215,"angular"],[215,216,"angular"],[216,217,"angular"],[217,218,"angular"],[218,219,"angular"],[220,221,"angular"],[221,222,"angular"],[222,223,"angular"],[223,224,"angular"],[224,225,"angular"],[225,226,"angular"],[226,227,"angular"],[227,228,"angular"],[229,230,"angular"],[230,231,"angular"],[231,232,"angular"],[232,233,"angular"],[233,234,"angular"],[234,235,"angular"],[235,236,"angular"],[236,237,"angular"],[237,238,"angular"],[238,239,"angular"],[240,241,"angular"],[241,242,"angular"],[242,243,"angular"],[243,244,"angular"],[244,245,"angular"],[245,246,"angular"],[246,247,"angular"],[247,248,"angular"],[248,249,"angular"],[249,250,"angular"],[250,251,"angular"],[251,252,"angular"],[253,254,"angular"],[254,255,"angular"],[255,256,"angular"],[256,257,"angular"],[257,258,"angular"],[258,259,"angular"],[259,260,"angular"],[260,261,"angular"],[261,262,"angular"],[262,263,"angular"],[263,264,"angular"],[264,265,"angular"],[265,266,"angular"],[266,267,"angular"],[268,269,"angular"],[269,270,"angular"],[270,271,"angular"],[271,272,"angular"],[272,273,"angular"],[273,274,"angular"],[274,275,"angular"],[275,276,"angular"],[276,277,"angular"],[277,278,"angular"],[278,279,"angular"],[279,280,"angular"],[280,281,"angular"],[281,282,"angular"],[282,283,"angular"],[283,284,"angular"]],"generator":"geovac.viz_export","geovac_version":"0.4.0","kind":"lattice","max_n":9,"node_weight_rule":"-Z/n^2","node_weights":[-1.0,-0.25,-0.25,-0.25,-0.25,-0.1111111111111111,-0.1111111111111111,-0.1111111111111111,-0.1111111111111111,-0.1111111111111111,-0.1111111111111111,-0.1111111111111111,-0.1111111111111111,-0.1111111111111111,-0.0625,-0.0625,-0.0625,-0.0625,-0.0625,-0.0625,-0.0625,-0.0625,-0.0625,-0.0625,-0.0625,-0.0625,-0.0625,-0.0625,-0.0625,-0.0625,-0.04,-0.04,-0.04,-0.04,-0.04,-0.04,-0.04,-0.04,-0.04,-0.04,-0.04,-0.04,-0.04,-0.04,-0.04,-0.04,-0.04,-0.04,-0.04,-0.04,-0.04,-0.04,-0.04,-0.04,-0.04,-0.027777777777777776,-0.027777777777777776,-0.027777777777777776,-0.027777777777777776,-0.027777777777777776,-0.027777777777777776,-0.027777777777777776,-0.027777777777777776,-0.027777777777777776,-0.027777777777777776,-0.027777777777777776,-0.027777777777777776,-0.027777777777777776,-0.027777777777777776,-0.027777777777777776,-0.027777777777777776,-0.027777777777777776,-0.027777777777777776,-0.027777777777777776,-0.027777777777777776,-0.027777777777777776,-0.027777777777777776,-0.027777777777777776,-0.027777777777777776,-0.027777777777777776,-0.027777777777777776,-0.027777777777777776,-0.027777777777777776,-0.027777777777777776,-0.027777777777777776,-0.027777777777777776,-0.027777777777777776,-0.027777777777777776,-0.027777777777777776,-0.027777777777777776,-0.027777777777777776,-0.02040816326530612,-0.02040816326530612,-0.02040816326530612,-0.02040816326530612,-0.02040816326530612,-0.02040816326530612,-0.02040816326530612,-0.02040816326530612,-0.02040816326530612,-0.02040816326530612,-0.02040816326530612,-0.02040816326530612,-0.02040816326530612,-0.02040816326530612,-0.02040816326530612,-0.02040816326530612,-0.02040816326530612,-0.02040816326530612,-0.02040816326530612,-0.02040816326530612,-0.02040816326530612,-0.02040816326530612,-0.02040816326530612,-0.02040816326530612,-0.02040816326530612,-0.02040816326530612,-0.02040816326530612,-0.02040816326530612,-0.02040816326530612,-0.02040816326530612,-0.02040816326530612,-0.02040816326530612,-0.02040816326530612,-0.02040816326530612,-0.02040816326530612,-0.02040816326530612,-0.02040816326530612,-0.02040816326530612,-0.02040816326530612,-0.02040816326530612,-0.02040816326530612,-0.02040816326530612,-0.02040816326530612,-0.02040816326530612,-0.02040816326530612,-0.02040816326530612,-0.02040816326530612,-0.02040816326530612,-0.02040816326530612,-0.015625,-0.015625,-0.015625,-0.015625,-0.015625,-0.015625,-0.015625,-0.015625,-0.015625,-0.015625,-0.015625,-0.015625,-0.015625,-0.015625,-0.015625,-0.015625,-0.015625,-0.015625,-0.015625,-0.015625,-0.015625,-0.015625,-0.015625,-0.015625,-0.015625,-0.015625,-0.015625,-0.015625,-0.015625,-0.015625,-0.015625,-0.015625,-0.015625,-0.015625,-0.015625,-0.015625,-0.015625,-0.015625,-0.015625,-0.015625,-0.015625,-0.015625,-0.015625,-0.015625,-0.015625,-0.015625,-0.015625,-0.015625,-0.015625,-0.015625,-0.015625,-0.015625,-0.015625,-0.015625,-0.015625,-0.015625,-0.015625,-0.015625,-0.015625,-0.015625,-0.015625,-0.015625,-0.015625,-0.015625,-0.012345679012345678,-0.012345679012345678,-0.012345679012345678,-0.012345679012345678,-0.012345679012345678,-0.012345679012345678,-0.012345679012345678,-0.012345679012345678,-0.012345679012345678,-0.012345679012345678,-0.012345679012345678,-0.012345679012345678,-0.012345679012345678,-0.012345679012345678,-0.012345679012345678,-0.012345679012345678,-0.012345679012345678,-0.012345679012345678,-0.012345679012345678,-0.012345679012345678,-0.012345679012345678,-0.012345679012345678,-0.012345679012345678,-0.012345679012345678,-0.012345679012345678,-0.012345679012345678,-0.012345679012345678,-0.012345679012345678,-0.012345679012345678,-0.012345679012345678,-0.012345679012345678,-0.012345679012345678,-0.012345679012345678,-0.012345679012345678,-0.012345679012345678,-0.012345679012345678,-0.012345679012345678,-0.012345679012345678,-0.012345679012345678,-0.012345679012345678,-0.012345679012345678,-0.012345679012345678,-0.012345679012345678,-0.012345679012345678,-0.012345679012345678,-0.012345679012345678,-0.012345679012345678,-0.012345679012345678,-0.012345679012345678,-0.012345679012345678,-0.012345679012345678,-0.012345679012345678,-0.012345679012345678,-0.012345679012345678,-0.012345679012345678,-0.012345679012345678,-0.012345679012345678,-0.012345679012345678,-0.012345679012345678,-0.012345679012345678,-0.012345679012345678,-0.012345679012345678,-0.012345679012345678,-0.012345679012345678,-0.012345679012345678,-0.012345679012345678,-0.012345679012345678,-0.012345679012345678,-0.012345679012345678,-0.012345679012345678,-0.012345679012345678,-0.012345679012345678,-0.012345679012345678,-0.012345679012345678,-0.012345679012345678,-0.012345679012345678,-0.012345679012345678,-0.012345679012345678,-0.012345679012345678,-0.012345679012345678,-0.012345679012345678],"num_edges":444,"num_states":285,"schema_version":1,"shells":[{"degeneracy":1,"n":1},{"degeneracy":4,"n":2},{"degeneracy":9,"n":3},{"degeneracy":16,"n":4},{"degeneracy":25,"n":5},{"degeneracy":36,"n":6},{"degeneracy":49,"n":7},{"degeneracy":64,"n":8},{"degeneracy":81,"n":9}],"states":[[1,0,0],[2,0,0],[2,1,-1],[2,1,0],[2,1,1],[3,0,0],[3,1,-1],[3,1,0],[3,1,1],[3,2,-2],[3,2,-1],[3,2,0],[3,2,1],[3,2,2],[4,0,0],[4,1,-1],[4,1,0],[4,1,1],[4,2,-2],[4,2,-1],[4,2,0],[4,2,1],[4,2,2],[4,3,-3],[4,3,-2],[4,3,-1],[4,3,0],[4,3,1],[4,3,2],[4,3,3],[5,0,0],[5,1,-1],[5,1,0],[5,1,1],[5,2,-2],[5,2,-1],[5,2,0],[5,2,1],[5,2,2],[5,3,-3],[5,3,-2],[5,3,-1],[5,3,0],[5,3,1],[5,3,2],[5,3,3],[5,4,-4],[5,4,-3],[5,4,-2],[5,4,-1],[5,4,0],[5,4,1],[5,4,2],[5,4,3],[5,4,4],[6,0,0],[6,1,-1],[6,1,0],[6,1,1],[6,2,-2],[6,2,-1],[6,2,0],[6,2,1],[6,2,2],[6,3,-3],[6,3,-2],[6,3,-1],[6,3,0],[6,3,1],[6,3,2],[6,3,3],[6,4,-4],[6,4,-3],[6,4,-2],[6,4,-1],[6,4,0],[6,4,1],[6,4,2],[6,4,3],[6,4,4],[6,5,-5],[6,5,-4],[6,5,-3],[6,5,-2],[6,5,-1],[6,5,0],[6,5,1],[6,5,2],[6,5,3],[6,5,4],[6,5,5],[7,0,0],[7,1,-1],[7,1,0],[7,1,1],[7,2,-2],[7,2,-1],[7,2,0],[7,2,1],[7,2,2],[7,3,-3],[7,3,-2],[7,3,-1],[7,3,0],[7,3,1],[7,3,2],[7,3,3],[7,4,-4],[7,4,-3],[7,4,-2],[7,4,-1],[7,4,0],[7,4,1],[7,4,2],[7,4,3],[7,4,4],[7,5,-5],[7,5,-4],[7,5,-3],[7,5,-2],[7,5,-1],[7,5,0],[7,5,1],[7,5,2],[7,5,3],[7,5,4],[7,5,5],[7,6,-6],[7,6,-5],[7,6,-4],[7,6,-3],[7,6,-2],[7,6,-1],[7,6,0],[7,6,1],[7,6,2],[7,6,3],[7,6,4],[7,6,5],[7,6,6],[8,0,0],[8,1,-1],[8,1,0],[8,1,1],[8,2,-2],[8,2,-1],[8,2,0],[8,2,1],[8,2,2],[8,3,-3],[8,3,-2],[8,3,-1],[8,3,0],[8,3,1],[8,3,2],[8,3,3],[8,4,-4],[8,4,-3],[8,4,-2],[8,4,-1],[8,4,0],[8,4,1],[8,4,2],[8,4,3],[8,4,4],[8,5,-5],[8,5,-4],[8,5,-3],[8,5,-2],[8,5,-1],[8,5,0],[8,5,1],[8,5,2],[8,5,3],[8,5,4],[8,5,5],[8,6,-6],[8,6,-5],[8,6,-4],[8,6,-3],[8,6,-2],[8,6,-1],[8,6,0],[8,6,1],[8,6,2],[8,6,3],[8,6,4],[8,6,5],[8,6,6],[8,7,-7],[8,7,-6],[8,7,-5],[8,7,-4],[8,7,-3],[8,7,-2],[8,7,-1],[8,7,0],[8,7,1],[8,7,2],[8,7,3],[8,7,4],[8,7,5],[8,7,6],[8,7,7],[9,0,0],[9,1,-1],[9,1,0],[9,1,1],[9,2,-2],[9,2,-1],[9,2,0],[9,2,1],[9,2,2],[9,3,-3],[9,3,-2],[9,3,-1],[9,3,0],[9,3,1],[9,3,2],[9,3,3],[9,4,-4],[9,4,-3],[9,4,-2],[9,4,-1],[9,4,0],[9,4,1],[9,4,2],[9,4,3],[9,4,4],[9,5,-5],[9,5,-4],[9,5,-3],[9,5,-2],[9,5,-1],[9,5,0],[9,5,1],[9,5,2],[9,5,3],[9,5,4],[9,5,5],[9,6,-6],[9,6,-5],[9,6,-4],[9,6,-3],[9,6,-2],[9,6,-1],[9,6,0],[9,6,1],[9,6,2],[9,6,3],[9,6,4],[9,6,5],[9,6,6],[9,7,-7],[9,7,-6],[9,7,-5],[9,7,-4],[9,7,-3],[9,7,-2],[9,7,-1],[9,7,0],[9,7,1],[9,7,2],[9,7,3],[9,7,4],[9,7,5],[9,7,6],[9,7,7],[9,8,-8],[9,8,-7],[9,8,-6],[9,8,-5],[9,8,-4],[9,8,-3],[9,8,-2],[9,8,-1],[9,8,0],[9,8,1],[9,8,2],[9,8,3],[9,8,4],[9,8,5],[9,8,6],[9,8,7],[9,8,8]]}
